<?xml version="1.0"?>
<opencv_storage>
<stage5>
  <maxWeakCount>87</maxWeakCount>
  <stageThreshold>-1.0680044889450073e+00</stageThreshold>
  <weakClassifiers>
    <_>
      <internalNodes>
        0 -1 476 -1.1650319397449493e-01</internalNodes>
      <leafValues>
        2.6886790990829468e-01 -2.3320463299751282e-01</leafValues></_>
    <_>
      <internalNodes>
        0 -1 92798 -1.8788204761222005e-04</internalNodes>
      <leafValues>
        -3.2019317150115967e-01 1.2834082543849945e-01</leafValues></_>
    <_>
      <internalNodes>
        0 -1 55670 1.7122983932495117e-02</internalNodes>
      <leafValues>
        -1.1990088224411011e-01 3.0199706554412842e-01</leafValues></_>
    <_>
      <internalNodes>
        0 -1 104640 -6.9387676194310188e-04</internalNodes>
      <leafValues>
        -3.1662395596504211e-01 1.1877216398715973e-01</leafValues></_>
    <_>
      <internalNodes>
        0 -1 107994 -6.3586374744772911e-03</internalNodes>
      <leafValues>
        2.4867652356624603e-01 -1.0128676146268845e-01</leafValues></_>
    <_>
      <internalNodes>
        0 -1 119567 -1.6937593463808298e-03</internalNodes>
      <leafValues>
        -3.3872896432876587e-01 7.3888510465621948e-02</leafValues></_>
    <_>
      <internalNodes>
        0 -1 88209 -1.3268546760082245e-01</internalNodes>
      <leafValues>
        -5.3120917081832886e-01 5.6789007037878036e-02</leafValues></_>
    <_>
      <internalNodes>
        0 -1 5390 1.3625089079141617e-02</internalNodes>
      <leafValues>
        -1.3222354650497437e-01 2.3145048320293427e-01</leafValues></_>
    <_>
      <internalNodes>
        0 -1 39219 4.0003068745136261e-02</internalNodes>
      <leafValues>
        -1.7018133401870728e-01 2.1108111739158630e-01</leafValues></_>
    <_>
      <internalNodes>
        0 -1 92250 1.2771349400281906e-02</internalNodes>
      <leafValues>
        -1.1837601661682129e-01 3.1670862436294556e-01</leafValues></_>
    <_>
      <internalNodes>
        0 -1 79620 -1.6365780902560800e-04</internalNodes>
      <leafValues>
        -2.3783409595489502e-01 1.4560794830322266e-01</leafValues></_>
    <_>
      <internalNodes>
        0 -1 114948 5.4327845573425293e-03</internalNodes>
      <leafValues>
        -7.9647704958915710e-02 6.2969481945037842e-01</leafValues></_>
    <_>
      <internalNodes>
        0 -1 91559 2.9064837843179703e-02</internalNodes>
      <leafValues>
        -2.1296996623277664e-02 7.5091028213500977e-01</leafValues></_>
    <_>
      <internalNodes>
        0 -1 12910 4.2835257947444916e-02</internalNodes>
      <leafValues>
        6.8510010838508606e-02 -3.9829868078231812e-01</leafValues></_>
    <_>
      <internalNodes>
        0 -1 108213 1.1848242953419685e-02</internalNodes>
      <leafValues>
        7.3532506823539734e-02 -3.9709821343421936e-01</leafValues></_>
    <_>
      <internalNodes>
        0 -1 92624 -9.7970874048769474e-04</internalNodes>
      <leafValues>
        1.8964473903179169e-01 -1.7855040729045868e-01</leafValues></_>
    <_>
      <internalNodes>
        0 -1 91456 -9.4563220045529306e-05</internalNodes>
      <leafValues>
        -2.0792524516582489e-01 1.2899772822856903e-01</leafValues></_>
    <_>
      <internalNodes>
        0 -1 44300 -2.6778386905789375e-02</internalNodes>
      <leafValues>
        4.3993955850601196e-01 -7.6816037297248840e-02</leafValues></_>
    <_>
      <internalNodes>
        0 -1 52808 -6.1230836436152458e-03</internalNodes>
      <leafValues>
        2.4711000919342041e-01 -1.1199372261762619e-01</leafValues></_>
    <_>
      <internalNodes>
        0 -1 108991 -1.0119640501216054e-03</internalNodes>
      <leafValues>
        -2.0091168582439423e-01 1.7764410376548767e-01</leafValues></_>
    <_>
      <internalNodes>
        0 -1 35723 3.4290799521841109e-04</internalNodes>
      <leafValues>
        -8.0103948712348938e-02 3.6069008708000183e-01</leafValues></_>
    <_>
      <internalNodes>
        0 -1 84633 -1.2079342559445649e-04</internalNodes>
      <leafValues>
        -1.8185228109359741e-01 1.3979052007198334e-01</leafValues></_>
    <_>
      <internalNodes>
        0 -1 71725 4.7045110841281712e-04</internalNodes>
      <leafValues>
        1.3621759414672852e-01 -1.9009716808795929e-01</leafValues></_>
    <_>
      <internalNodes>
        0 -1 27067 1.8366169184446335e-02</internalNodes>
      <leafValues>
        -5.4125901311635971e-02 4.6621805429458618e-01</leafValues></_>
    <_>
      <internalNodes>
        0 -1 77672 1.0264227166771889e-03</internalNodes>
      <leafValues>
        1.4850963652133942e-01 -1.9014658033847809e-01</leafValues></_>
    <_>
      <internalNodes>
        0 -1 105349 -8.7336525321006775e-03</internalNodes>
      <leafValues>
        4.4494661688804626e-01 -6.5495014190673828e-02</leafValues></_>
    <_>
      <internalNodes>
        0 -1 117305 -1.4914103085175157e-03</internalNodes>
      <leafValues>
        1.9671064615249634e-01 -1.3337147235870361e-01</leafValues></_>
    <_>
      <internalNodes>
        0 -1 112495 -5.5557471932843328e-04</internalNodes>
      <leafValues>
        -2.2027835249900818e-01 1.3236422836780548e-01</leafValues></_>
    <_>
      <internalNodes>
        0 -1 110568 -8.5947674233466387e-04</internalNodes>
      <leafValues>
        2.4224625527858734e-01 -1.1936300247907639e-01</leafValues></_>
    <_>
      <internalNodes>
        0 -1 19336 1.9197563233319670e-04</internalNodes>
      <leafValues>
        1.1236571520566940e-01 -2.4393957853317261e-01</leafValues></_>
    <_>
      <internalNodes>
        0 -1 7515 1.5286410925909877e-03</internalNodes>
      <leafValues>
        -1.1344704777002335e-01 2.5588631629943848e-01</leafValues></_>
    <_>
      <internalNodes>
        0 -1 28002 -3.9420598186552525e-03</internalNodes>
      <leafValues>
        -2.4900408089160919e-01 1.0616619884967804e-01</leafValues></_>
    <_>
      <internalNodes>
        0 -1 86930 6.0563339502550662e-05</internalNodes>
      <leafValues>
        -1.4994260668754578e-01 1.8854388594627380e-01</leafValues></_>
    <_>
      <internalNodes>
        0 -1 96992 -4.5948632759973407e-04</internalNodes>
      <leafValues>
        -2.5877651572227478e-01 1.0231494158506393e-01</leafValues></_>
    <_>
      <internalNodes>
        0 -1 100288 -8.1122945994138718e-03</internalNodes>
      <leafValues>
        1.6481712460517883e-01 -1.7486527562141418e-01</leafValues></_>
    <_>
      <internalNodes>
        0 -1 119567 3.4169596619904041e-04</internalNodes>
      <leafValues>
        1.3615916669368744e-01 -2.4309617280960083e-01</leafValues></_>
    <_>
      <internalNodes>
        0 -1 123948 5.3303360939025879e-02</internalNodes>
      <leafValues>
        -4.2805515229701996e-02 6.2692302465438843e-01</leafValues></_>
    <_>
      <internalNodes>
        0 -1 116054 -1.7707562074065208e-03</internalNodes>
      <leafValues>
        -2.7497783303260803e-01 1.0916171967983246e-01</leafValues></_>
    <_>
      <internalNodes>
        0 -1 100078 7.5027411803603172e-03</internalNodes>
      <leafValues>
        -1.0408319532871246e-01 2.6087459921836853e-01</leafValues></_>
    <_>
      <internalNodes>
        0 -1 15011 1.0248185571981594e-04</internalNodes>
      <leafValues>
        -1.4686721563339233e-01 1.7444850504398346e-01</leafValues></_>
    <_>
      <internalNodes>
        0 -1 47113 -3.0138716101646423e-03</internalNodes>
      <leafValues>
        2.3933623731136322e-01 -1.1080886423587799e-01</leafValues></_>
    <_>
      <internalNodes>
        0 -1 123685 1.5703299141023308e-04</internalNodes>
      <leafValues>
        1.3012804090976715e-01 -1.9308963418006897e-01</leafValues></_>
    <_>
      <internalNodes>
        0 -1 25192 2.0034894347190857e-02</internalNodes>
      <leafValues>
        -1.4781808853149414e-01 1.7389310896396637e-01</leafValues></_>
    <_>
      <internalNodes>
        0 -1 86619 6.9558888208121061e-04</internalNodes>
      <leafValues>
        1.2841086089611053e-01 -2.4565500020980835e-01</leafValues></_>
    <_>
      <internalNodes>
        0 -1 63737 3.9748501149006188e-04</internalNodes>
      <leafValues>
        1.2755928933620453e-01 -2.2131600975990295e-01</leafValues></_>
    <_>
      <internalNodes>
        0 -1 121548 6.1064452165737748e-04</internalNodes>
      <leafValues>
        1.0237715393304825e-01 -2.8294643759727478e-01</leafValues></_>
    <_>
      <internalNodes>
        0 -1 110620 -8.8722677901387215e-03</internalNodes>
      <leafValues>
        2.5091907382011414e-01 -1.1778318136930466e-01</leafValues></_>
    <_>
      <internalNodes>
        0 -1 64789 -1.2847676407545805e-03</internalNodes>
      <leafValues>
        2.3927216231822968e-01 -1.2550097703933716e-01</leafValues></_>
    <_>
      <internalNodes>
        0 -1 51881 -1.3031932711601257e-01</internalNodes>
      <leafValues>
        -4.5430728793144226e-01 6.2062095850706100e-02</leafValues></_>
    <_>
      <internalNodes>
        0 -1 87008 1.1832188814878464e-02</internalNodes>
      <leafValues>
        -5.8786209672689438e-02 4.7574838995933533e-01</leafValues></_>
    <_>
      <internalNodes>
        0 -1 53339 -1.8003366421908140e-03</internalNodes>
      <leafValues>
        2.5365823507308960e-01 -1.0265642404556274e-01</leafValues></_>
    <_>
      <internalNodes>
        0 -1 115910 -8.8130036601796746e-05</internalNodes>
      <leafValues>
        -2.2089253365993500e-01 1.3333252072334290e-01</leafValues></_>
    <_>
      <internalNodes>
        0 -1 8623 -9.7934082150459290e-02</internalNodes>
      <leafValues>
        8.6356317996978760e-01 -3.4503355622291565e-02</leafValues></_>
    <_>
      <internalNodes>
        0 -1 62300 2.8306253254413605e-02</internalNodes>
      <leafValues>
        6.5266020596027374e-02 -4.6174135804176331e-01</leafValues></_>
    <_>
      <internalNodes>
        0 -1 44781 1.1021369136869907e-02</internalNodes>
      <leafValues>
        -7.9510614275932312e-02 3.9414909482002258e-01</leafValues></_>
    <_>
      <internalNodes>
        0 -1 12658 1.9895844161510468e-02</internalNodes>
      <leafValues>
        -5.6623131036758423e-02 4.8229220509529114e-01</leafValues></_>
    <_>
      <internalNodes>
        0 -1 37604 1.9386528583709151e-04</internalNodes>
      <leafValues>
        1.3064804673194885e-01 -2.0094321668148041e-01</leafValues></_>
    <_>
      <internalNodes>
        0 -1 17149 -1.2703419663012028e-02</internalNodes>
      <leafValues>
        1.8847203254699707e-01 -1.5467755496501923e-01</leafValues></_>
    <_>
      <internalNodes>
        0 -1 62989 1.5207189135253429e-03</internalNodes>
      <leafValues>
        1.1675456911325455e-01 -2.4123239517211914e-01</leafValues></_>
    <_>
      <internalNodes>
        0 -1 123538 -1.3745528121944517e-04</internalNodes>
      <leafValues>
        1.7711617052555084e-01 -1.5722823143005371e-01</leafValues></_>
    <_>
      <internalNodes>
        0 -1 106081 -8.6896136053837836e-05</internalNodes>
      <leafValues>
        -1.8523763120174408e-01 1.3431163132190704e-01</leafValues></_>
    <_>
      <internalNodes>
        0 -1 9951 6.2070954299997538e-05</internalNodes>
      <leafValues>
        -1.2685532867908478e-01 1.9805417954921722e-01</leafValues></_>
    <_>
      <internalNodes>
        0 -1 19177 6.8787266500294209e-03</internalNodes>
      <leafValues>
        -4.9774385988712311e-02 4.8500588536262512e-01</leafValues></_>
    <_>
      <internalNodes>
        0 -1 28708 2.3930944735184312e-04</internalNodes>
      <leafValues>
        1.3618701696395874e-01 -2.4256192147731781e-01</leafValues></_>
    <_>
      <internalNodes>
        0 -1 86722 -4.3046213686466217e-03</internalNodes>
      <leafValues>
        6.0465359687805176e-01 -4.4401999562978745e-02</leafValues></_>
    <_>
      <internalNodes>
        0 -1 6892 1.6756691038608551e-02</internalNodes>
      <leafValues>
        7.9408772289752960e-02 -3.2708463072776794e-01</leafValues></_>
    <_>
      <internalNodes>
        0 -1 9876 2.6007369160652161e-03</internalNodes>
      <leafValues>
        -1.0330303013324738e-01 2.3613558709621429e-01</leafValues></_>
    <_>
      <internalNodes>
        0 -1 47153 2.6040046941488981e-04</internalNodes>
      <leafValues>
        1.0265041887760162e-01 -2.5850549340248108e-01</leafValues></_>
    <_>
      <internalNodes>
        0 -1 31071 7.2032414376735687e-02</internalNodes>
      <leafValues>
        -1.3382872939109802e-01 1.9773371517658234e-01</leafValues></_>
    <_>
      <internalNodes>
        0 -1 89671 -1.3372421264648438e-01</internalNodes>
      <leafValues>
        -6.7879790067672729e-01 3.7200804799795151e-02</leafValues></_>
    <_>
      <internalNodes>
        0 -1 79770 8.9985167142003775e-04</internalNodes>
      <leafValues>
        1.1927600950002670e-01 -2.1764703094959259e-01</leafValues></_>
    <_>
      <internalNodes>
        0 -1 258 4.3526239693164825e-02</internalNodes>
      <leafValues>
        8.7664939463138580e-02 -3.1261390447616577e-01</leafValues></_>
    <_>
      <internalNodes>
        0 -1 7164 -1.1461506364867091e-03</internalNodes>
      <leafValues>
        2.5955745577812195e-01 -1.0336291790008545e-01</leafValues></_>
    <_>
      <internalNodes>
        0 -1 24507 3.9786264300346375e-02</internalNodes>
      <leafValues>
        -9.9041961133480072e-02 2.5894829630851746e-01</leafValues></_>
    <_>
      <internalNodes>
        0 -1 61830 2.0645819604396820e-03</internalNodes>
      <leafValues>
        -1.0537610203027725e-01 2.4155476689338684e-01</leafValues></_>
    <_>
      <internalNodes>
        0 -1 62603 -1.1908769374713302e-04</internalNodes>
      <leafValues>
        -1.9849412143230438e-01 1.3141100108623505e-01</leafValues></_>
    <_>
      <internalNodes>
        0 -1 26532 -5.6047225371003151e-05</internalNodes>
      <leafValues>
        1.9423124194145203e-01 -1.3564701378345490e-01</leafValues></_>
    <_>
      <internalNodes>
        0 -1 124803 3.8259369321167469e-03</internalNodes>
      <leafValues>
        4.1043955832719803e-02 -6.8568730354309082e-01</leafValues></_>
    <_>
      <internalNodes>
        0 -1 121845 -1.1851787567138672e-02</internalNodes>
      <leafValues>
        -3.2297322154045105e-01 6.8632081151008606e-02</leafValues></_>
    <_>
      <internalNodes>
        0 -1 55771 -3.6808237200602889e-04</internalNodes>
      <leafValues>
        3.5791906714439392e-01 -7.0179969072341919e-02</leafValues></_>
    <_>
      <internalNodes>
        0 -1 109590 -6.7144684726372361e-04</internalNodes>
      <leafValues>
        -1.6708925366401672e-01 1.5842780470848083e-01</leafValues></_>
    <_>
      <internalNodes>
        0 -1 95704 1.6134604811668396e-02</internalNodes>
      <leafValues>
        -1.1434635519981384e-01 2.3853580653667450e-01</leafValues></_>
    <_>
      <internalNodes>
        0 -1 120348 -3.6787905264645815e-03</internalNodes>
      <leafValues>
        2.4525289237499237e-01 -1.2317460030317307e-01</leafValues></_>
    <_>
      <internalNodes>
        0 -1 55001 -3.5224556922912598e-03</internalNodes>
      <leafValues>
        -3.0023536086082458e-01 9.0737968683242798e-02</leafValues></_>
    <_>
      <internalNodes>
        0 -1 110361 -2.0328559912741184e-04</internalNodes>
      <leafValues>
        2.2642245888710022e-01 -1.3337461650371552e-01</leafValues></_>
    <_>
      <internalNodes>
        0 -1 28281 7.4937306344509125e-03</internalNodes>
      <leafValues>
        -6.0635223984718323e-02 3.8766115903854370e-01</leafValues></_>
    <_>
      <internalNodes>
        0 -1 16879 2.1632362157106400e-02</internalNodes>
      <leafValues>
        -9.3510128557682037e-02 2.9697868227958679e-01</leafValues></_></weakClassifiers></stage5>
</opencv_storage>
