<?xml version="1.0"?>
<opencv_storage>
<stage8>
  <maxWeakCount>5</maxWeakCount>
  <stageThreshold>-8.5708004236221313e-01</stageThreshold>
  <weakClassifiers>
    <_>
      <internalNodes>
        0 -1 105329 -1.3672066852450371e-02</internalNodes>
      <leafValues>
        -6.8601799011230469e-01 1.</leafValues></_>
    <_>
      <internalNodes>
        0 -1 17827 -4.5256139710545540e-03</internalNodes>
      <leafValues>
        -4.5182666182518005e-01 1.</leafValues></_>
    <_>
      <internalNodes>
        0 -1 103995 -1.7043393105268478e-02</internalNodes>
      <leafValues>
        -3.5389924049377441e-01 1.</leafValues></_>
    <_>
      <internalNodes>
        0 -1 102577 2.6816674508154392e-03</internalNodes>
      <leafValues>
        1. -3.6405268311500549e-01</leafValues></_>
    <_>
      <internalNodes>
        0 -1 72655 -1.9525910829543136e-05</internalNodes>
      <leafValues>
        1. -3.5518270730972290e-01</leafValues></_></weakClassifiers></stage8>
</opencv_storage>
