<?xml version="1.0"?>
<opencv_storage>
<stage4>
  <maxWeakCount>100</maxWeakCount>
  <stageThreshold>-9.3659108877182007e-01</stageThreshold>
  <weakClassifiers>
    <_>
      <internalNodes>
        0 -1 3164 -1.4539700746536255e-01</internalNodes>
      <leafValues>
        3.5856574773788452e-01 -2.1763470768928528e-01</leafValues></_>
    <_>
      <internalNodes>
        0 -1 2761 -9.6447831019759178e-03</internalNodes>
      <leafValues>
        1.3332463800907135e-01 -2.3422262072563171e-01</leafValues></_>
    <_>
      <internalNodes>
        0 -1 108817 3.2518888474442065e-04</internalNodes>
      <leafValues>
        1.1555051803588867e-01 -2.5044971704483032e-01</leafValues></_>
    <_>
      <internalNodes>
        0 -1 104632 1.4546999591402709e-04</internalNodes>
      <leafValues>
        1.9129846990108490e-01 -1.9984842836856842e-01</leafValues></_>
    <_>
      <internalNodes>
        0 -1 24673 -4.6041007153689861e-03</internalNodes>
      <leafValues>
        5.3634155541658401e-02 -3.0042701959609985e-01</leafValues></_>
    <_>
      <internalNodes>
        0 -1 104632 -1.5762515249662101e-04</internalNodes>
      <leafValues>
        -1.9594079256057739e-01 1.7461857199668884e-01</leafValues></_>
    <_>
      <internalNodes>
        0 -1 96189 -1.1150682345032692e-02</internalNodes>
      <leafValues>
        1.7538443207740784e-01 -1.5513424575328827e-01</leafValues></_>
    <_>
      <internalNodes>
        0 -1 43729 4.2887292802333832e-02</internalNodes>
      <leafValues>
        -1.0860235244035721e-01 2.6058068871498108e-01</leafValues></_>
    <_>
      <internalNodes>
        0 -1 93029 1.7468028818257153e-04</internalNodes>
      <leafValues>
        1.4349399507045746e-01 -2.3396651446819305e-01</leafValues></_>
    <_>
      <internalNodes>
        0 -1 124874 -3.5027615725994110e-02</internalNodes>
      <leafValues>
        2.9167681932449341e-01 -9.2598132789134979e-02</leafValues></_>
    <_>
      <internalNodes>
        0 -1 93029 -2.5185936829075217e-04</internalNodes>
      <leafValues>
        -2.1281766891479492e-01 1.5817920863628387e-01</leafValues></_>
    <_>
      <internalNodes>
        0 -1 5 -4.1408900870010257e-04</internalNodes>
      <leafValues>
        1.8510414659976959e-01 -1.4376716315746307e-01</leafValues></_>
    <_>
      <internalNodes>
        0 -1 56853 5.6394778192043304e-02</internalNodes>
      <leafValues>
        7.6410405337810516e-02 -5.2059757709503174e-01</leafValues></_>
    <_>
      <internalNodes>
        0 -1 80325 5.1978984847664833e-03</internalNodes>
      <leafValues>
        -2.5848007202148438e-01 6.2209326773881912e-02</leafValues></_>
    <_>
      <internalNodes>
        0 -1 88326 -1.3459259644150734e-03</internalNodes>
      <leafValues>
        2.4163533747196198e-01 -7.7244937419891357e-02</leafValues></_>
    <_>
      <internalNodes>
        0 -1 102041 -2.4351105093955994e-04</internalNodes>
      <leafValues>
        -2.4438850581645966e-01 6.7693106830120087e-02</leafValues></_>
    <_>
      <internalNodes>
        0 -1 80018 9.8055803391616791e-05</internalNodes>
      <leafValues>
        -8.7211690843105316e-02 2.2181418538093567e-01</leafValues></_>
    <_>
      <internalNodes>
        0 -1 54813 1.5763365081511438e-04</internalNodes>
      <leafValues>
        8.9981406927108765e-02 -2.0508155226707458e-01</leafValues></_>
    <_>
      <internalNodes>
        0 -1 116217 7.9131248639896512e-05</internalNodes>
      <leafValues>
        1.3703194260597229e-01 -1.6707825660705566e-01</leafValues></_>
    <_>
      <internalNodes>
        0 -1 45935 -1.7059649690054357e-04</internalNodes>
      <leafValues>
        1.2106013298034668e-01 -1.7162686586380005e-01</leafValues></_>
    <_>
      <internalNodes>
        0 -1 27957 -6.7455489188432693e-03</internalNodes>
      <leafValues>
        2.0722761750221252e-01 -8.0067068338394165e-02</leafValues></_>
    <_>
      <internalNodes>
        0 -1 70992 -3.6806811112910509e-04</internalNodes>
      <leafValues>
        -2.0685432851314545e-01 1.1388629674911499e-01</leafValues></_>
    <_>
      <internalNodes>
        0 -1 95316 -1.2412585318088531e-01</internalNodes>
      <leafValues>
        -3.0201300978660583e-01 6.4949624240398407e-02</leafValues></_>
    <_>
      <internalNodes>
        0 -1 35532 5.5539451539516449e-02</internalNodes>
      <leafValues>
        -1.1403910815715790e-01 2.0227378606796265e-01</leafValues></_>
    <_>
      <internalNodes>
        0 -1 71479 1.6044787480495870e-04</internalNodes>
      <leafValues>
        1.1005074530839920e-01 -1.8678402900695801e-01</leafValues></_>
    <_>
      <internalNodes>
        0 -1 81330 1.0463848710060120e-02</internalNodes>
      <leafValues>
        5.3083755075931549e-02 -3.3739003539085388e-01</leafValues></_>
    <_>
      <internalNodes>
        0 -1 66451 -5.3836088627576828e-03</internalNodes>
      <leafValues>
        2.2365783154964447e-01 -8.1982053816318512e-02</leafValues></_>
    <_>
      <internalNodes>
        0 -1 68367 4.8225680366158485e-03</internalNodes>
      <leafValues>
        -6.4640700817108154e-02 3.5413020849227905e-01</leafValues></_>
    <_>
      <internalNodes>
        0 -1 58153 5.9780129959108308e-05</internalNodes>
      <leafValues>
        -1.2482437491416931e-01 1.5370668470859528e-01</leafValues></_>
    <_>
      <internalNodes>
        0 -1 5451 2.0363628864288330e-01</internalNodes>
      <leafValues>
        5.2929867058992386e-02 -4.7485461831092834e-01</leafValues></_>
    <_>
      <internalNodes>
        0 -1 69855 -1.5648933185730129e-04</internalNodes>
      <leafValues>
        -1.9095470011234283e-01 8.8477276265621185e-02</leafValues></_>
    <_>
      <internalNodes>
        0 -1 44007 8.7273940443992615e-03</internalNodes>
      <leafValues>
        -9.2948012053966522e-02 2.3263888061046600e-01</leafValues></_>
    <_>
      <internalNodes>
        0 -1 93386 -1.5231841243803501e-03</internalNodes>
      <leafValues>
        -2.4261558055877686e-01 8.0493755638599396e-02</leafValues></_>
    <_>
      <internalNodes>
        0 -1 12288 -1.0163029655814171e-02</internalNodes>
      <leafValues>
        -4.3085899949073792e-01 3.7424072623252869e-02</leafValues></_>
    <_>
      <internalNodes>
        0 -1 70757 -1.3863241299986839e-02</internalNodes>
      <leafValues>
        1.9079871475696564e-01 -9.2481099069118500e-02</leafValues></_>
    <_>
      <internalNodes>
        0 -1 105913 1.4424633234739304e-02</internalNodes>
      <leafValues>
        -1.5959253907203674e-01 1.3258652389049530e-01</leafValues></_>
    <_>
      <internalNodes>
        0 -1 1162 -7.5449887663125992e-04</internalNodes>
      <leafValues>
        1.7052668333053589e-01 -1.0833948105573654e-01</leafValues></_>
    <_>
      <internalNodes>
        0 -1 29118 1.7952581401914358e-03</internalNodes>
      <leafValues>
        -1.2274710834026337e-01 1.5939311683177948e-01</leafValues></_>
    <_>
      <internalNodes>
        0 -1 7179 1.2282601557672024e-02</internalNodes>
      <leafValues>
        -9.5980152487754822e-02 1.9836208224296570e-01</leafValues></_>
    <_>
      <internalNodes>
        0 -1 44968 6.5051829442381859e-03</internalNodes>
      <leafValues>
        -5.6749083101749420e-02 3.1139966845512390e-01</leafValues></_>
    <_>
      <internalNodes>
        0 -1 54487 -7.6766111305914819e-05</internalNodes>
      <leafValues>
        -1.9042964279651642e-01 1.1119228601455688e-01</leafValues></_>
    <_>
      <internalNodes>
        0 -1 70975 2.5663827545940876e-04</internalNodes>
      <leafValues>
        1.0895536094903946e-01 -1.7107704281806946e-01</leafValues></_>
    <_>
      <internalNodes>
        0 -1 123778 -2.9805948957800865e-02</internalNodes>
      <leafValues>
        3.0795726180076599e-01 -5.7228542864322662e-02</leafValues></_>
    <_>
      <internalNodes>
        0 -1 106979 -8.5349172877613455e-05</internalNodes>
      <leafValues>
        -1.5773424506187439e-01 1.1972442269325256e-01</leafValues></_>
    <_>
      <internalNodes>
        0 -1 79972 5.2234692702768371e-05</internalNodes>
      <leafValues>
        -1.1618498712778091e-01 1.4924210309982300e-01</leafValues></_>
    <_>
      <internalNodes>
        0 -1 10300 -1.2473413348197937e-01</internalNodes>
      <leafValues>
        -5.2407801151275635e-01 3.1614303588867188e-02</leafValues></_>
    <_>
      <internalNodes>
        0 -1 29807 3.8681491278111935e-03</internalNodes>
      <leafValues>
        -6.8964563310146332e-02 2.4586580693721771e-01</leafValues></_>
    <_>
      <internalNodes>
        0 -1 104086 -9.8020909354090691e-04</internalNodes>
      <leafValues>
        -2.2815486788749695e-01 7.7667795121669769e-02</leafValues></_>
    <_>
      <internalNodes>
        0 -1 61779 -1.5234478632919490e-04</internalNodes>
      <leafValues>
        -1.7395724356174469e-01 9.7596779465675354e-02</leafValues></_>
    <_>
      <internalNodes>
        0 -1 115726 -9.1385338455438614e-03</internalNodes>
      <leafValues>
        1.5625336766242981e-01 -1.1736293137073517e-01</leafValues></_>
    <_>
      <internalNodes>
        0 -1 77128 -3.1831376254558563e-02</internalNodes>
      <leafValues>
        1.5916596353054047e-01 -1.0796485841274261e-01</leafValues></_>
    <_>
      <internalNodes>
        0 -1 120107 5.9984507970511913e-04</internalNodes>
      <leafValues>
        1.0626842081546783e-01 -2.1541360020637512e-01</leafValues></_>
    <_>
      <internalNodes>
        0 -1 43367 -1.9709253683686256e-03</internalNodes>
      <leafValues>
        3.3594590425491333e-01 -4.4441472738981247e-02</leafValues></_>
    <_>
      <internalNodes>
        0 -1 42079 1.6111336881294847e-03</internalNodes>
      <leafValues>
        -7.7150255441665649e-02 2.3581856489181519e-01</leafValues></_>
    <_>
      <internalNodes>
        0 -1 15521 3.1392844393849373e-03</internalNodes>
      <leafValues>
        5.3216878324747086e-02 -3.0229410529136658e-01</leafValues></_>
    <_>
      <internalNodes>
        0 -1 112811 3.8508663419634104e-04</internalNodes>
      <leafValues>
        7.5174465775489807e-02 -2.1250978112220764e-01</leafValues></_>
    <_>
      <internalNodes>
        0 -1 103228 3.0736525077372789e-03</internalNodes>
      <leafValues>
        -1.1016975343227386e-01 1.9887922704219818e-01</leafValues></_>
    <_>
      <internalNodes>
        0 -1 16158 -1.2572907144203782e-04</internalNodes>
      <leafValues>
        1.3687507808208466e-01 -1.2017691880464554e-01</leafValues></_>
    <_>
      <internalNodes>
        0 -1 124732 3.6656735464930534e-03</internalNodes>
      <leafValues>
        -7.6750449836254120e-02 2.1490460634231567e-01</leafValues></_>
    <_>
      <internalNodes>
        0 -1 7439 4.7804784029722214e-02</internalNodes>
      <leafValues>
        6.0200676321983337e-02 -2.7651658654212952e-01</leafValues></_>
    <_>
      <internalNodes>
        0 -1 123731 9.0779131278395653e-04</internalNodes>
      <leafValues>
        -1.4291298389434814e-01 1.1909515410661697e-01</leafValues></_>
    <_>
      <internalNodes>
        0 -1 48557 1.6958922147750854e-01</internalNodes>
      <leafValues>
        2.7853285893797874e-02 -5.7870846986770630e-01</leafValues></_>
    <_>
      <internalNodes>
        0 -1 114712 1.3913353905081749e-04</internalNodes>
      <leafValues>
        1.0795491933822632e-01 -1.4906476438045502e-01</leafValues></_>
    <_>
      <internalNodes>
        0 -1 114615 -1.3164875563234091e-03</internalNodes>
      <leafValues>
        1.9694548845291138e-01 -9.4650685787200928e-02</leafValues></_>
    <_>
      <internalNodes>
        0 -1 37845 7.0306251291185617e-04</internalNodes>
      <leafValues>
        -1.2324282526969910e-01 1.3379138708114624e-01</leafValues></_>
    <_>
      <internalNodes>
        0 -1 64048 1.5502371825277805e-03</internalNodes>
      <leafValues>
        6.2024328857660294e-02 -2.5575774908065796e-01</leafValues></_>
    <_>
      <internalNodes>
        0 -1 121172 6.9029591977596283e-03</internalNodes>
      <leafValues>
        -7.7890023589134216e-02 2.1831876039505005e-01</leafValues></_>
    <_>
      <internalNodes>
        0 -1 46654 -7.9045086749829352e-05</internalNodes>
      <leafValues>
        -1.7131106555461884e-01 9.3732066452503204e-02</leafValues></_>
    <_>
      <internalNodes>
        0 -1 37472 -3.0302278697490692e-02</internalNodes>
      <leafValues>
        2.9665550589561462e-01 -5.9645805507898331e-02</leafValues></_>
    <_>
      <internalNodes>
        0 -1 79960 8.3666323916986585e-05</internalNodes>
      <leafValues>
        1.0396527498960495e-01 -1.5610611438751221e-01</leafValues></_>
    <_>
      <internalNodes>
        0 -1 49754 -3.1772863119840622e-02</internalNodes>
      <leafValues>
        1.9832712411880493e-01 -8.8475845754146576e-02</leafValues></_>
    <_>
      <internalNodes>
        0 -1 43715 -2.0987674593925476e-02</internalNodes>
      <leafValues>
        -3.0986374616622925e-01 6.2607496976852417e-02</leafValues></_>
    <_>
      <internalNodes>
        0 -1 97023 4.7047147527337074e-03</internalNodes>
      <leafValues>
        -5.1079224795103073e-02 3.8923883438110352e-01</leafValues></_>
    <_>
      <internalNodes>
        0 -1 90188 -5.4997233673930168e-03</internalNodes>
      <leafValues>
        2.1838100254535675e-01 -8.0362036824226379e-02</leafValues></_>
    <_>
      <internalNodes>
        0 -1 26301 2.7086094021797180e-02</internalNodes>
      <leafValues>
        -9.8083034157752991e-02 1.7158451676368713e-01</leafValues></_>
    <_>
      <internalNodes>
        0 -1 24596 1.1327050626277924e-01</internalNodes>
      <leafValues>
        -3.8763042539358139e-02 5.0751829147338867e-01</leafValues></_>
    <_>
      <internalNodes>
        0 -1 116756 -1.7417315393686295e-04</internalNodes>
      <leafValues>
        -2.0868182182312012e-01 1.0104611515998840e-01</leafValues></_>
    <_>
      <internalNodes>
        0 -1 57775 1.9836992025375366e-02</internalNodes>
      <leafValues>
        -1.2465087324380875e-01 1.5213242173194885e-01</leafValues></_>
    <_>
      <internalNodes>
        0 -1 3016 2.3122157901525497e-02</internalNodes>
      <leafValues>
        4.2078994214534760e-02 -4.7972273826599121e-01</leafValues></_>
    <_>
      <internalNodes>
        0 -1 112926 -6.1060823500156403e-03</internalNodes>
      <leafValues>
        3.4574806690216064e-01 -6.0842815786600113e-02</leafValues></_>
    <_>
      <internalNodes>
        0 -1 112562 -3.1577594578266144e-02</internalNodes>
      <leafValues>
        -7.3498749732971191e-01 2.8780354186892509e-02</leafValues></_>
    <_>
      <internalNodes>
        0 -1 123094 1.6294798115268350e-04</internalNodes>
      <leafValues>
        1.0222700238227844e-01 -1.8450251221656799e-01</leafValues></_>
    <_>
      <internalNodes>
        0 -1 91470 4.3313903734087944e-04</internalNodes>
      <leafValues>
        1.0243180394172668e-01 -1.9708241522312164e-01</leafValues></_>
    <_>
      <internalNodes>
        0 -1 92972 -3.8759219460189342e-03</internalNodes>
      <leafValues>
        1.8638268113136292e-01 -1.0308413207530975e-01</leafValues></_>
    <_>
      <internalNodes>
        0 -1 114767 -5.3474574815481901e-04</internalNodes>
      <leafValues>
        1.8054646253585815e-01 -9.5757462084293365e-02</leafValues></_>
    <_>
      <internalNodes>
        0 -1 63434 -1.3563876971602440e-02</internalNodes>
      <leafValues>
        -6.3585001230239868e-01 2.6854870840907097e-02</leafValues></_>
    <_>
      <internalNodes>
        0 -1 28707 -1.4282180927693844e-03</internalNodes>
      <leafValues>
        -2.5243949890136719e-01 6.7365877330303192e-02</leafValues></_>
    <_>
      <internalNodes>
        0 -1 9927 2.2789250942878425e-04</internalNodes>
      <leafValues>
        8.6813420057296753e-02 -2.0195893943309784e-01</leafValues></_>
    <_>
      <internalNodes>
        0 -1 27393 4.6851899242028594e-05</internalNodes>
      <leafValues>
        -1.1390547454357147e-01 1.5009319782257080e-01</leafValues></_>
    <_>
      <internalNodes>
        0 -1 113138 -5.2343832794576883e-04</internalNodes>
      <leafValues>
        -1.7124177515506744e-01 9.4457074999809265e-02</leafValues></_>
    <_>
      <internalNodes>
        0 -1 12749 -1.8936028936877847e-04</internalNodes>
      <leafValues>
        1.3899619877338409e-01 -1.1893599480390549e-01</leafValues></_>
    <_>
      <internalNodes>
        0 -1 27454 2.1259512286633253e-03</internalNodes>
      <leafValues>
        -8.5883550345897675e-02 1.9141662120819092e-01</leafValues></_>
    <_>
      <internalNodes>
        0 -1 37156 -8.6283136624842882e-05</internalNodes>
      <leafValues>
        -1.6064301133155823e-01 1.0844613611698151e-01</leafValues></_>
    <_>
      <internalNodes>
        0 -1 47197 1.2094398261979222e-03</internalNodes>
      <leafValues>
        -8.3449140191078186e-02 2.0136441290378571e-01</leafValues></_>
    <_>
      <internalNodes>
        0 -1 106583 1.7946232110261917e-03</internalNodes>
      <leafValues>
        -8.3224959671497345e-02 1.9475539028644562e-01</leafValues></_>
    <_>
      <internalNodes>
        0 -1 29675 6.1178957112133503e-03</internalNodes>
      <leafValues>
        7.8953437507152557e-02 -2.1198265254497528e-01</leafValues></_>
    <_>
      <internalNodes>
        0 -1 110844 2.3402906954288483e-03</internalNodes>
      <leafValues>
        -4.0271900594234467e-02 4.2976194620132446e-01</leafValues></_>
    <_>
      <internalNodes>
        0 -1 63431 4.0950812399387360e-03</internalNodes>
      <leafValues>
        5.7340163737535477e-02 -2.9406595230102539e-01</leafValues></_>
    <_>
      <internalNodes>
        0 -1 86361 -1.6088162083178759e-03</internalNodes>
      <leafValues>
        2.1971355378627777e-01 -8.5974015295505524e-02</leafValues></_>
    <_>
      <internalNodes>
        0 -1 44591 1.3878148049116135e-02</internalNodes>
      <leafValues>
        -6.9708123803138733e-02 2.3532381653785706e-01</leafValues></_></weakClassifiers></stage4>
</opencv_storage>
