<?xml version="1.0"?>
<opencv_storage>
<stage6>
  <maxWeakCount>35</maxWeakCount>
  <stageThreshold>-1.0247040987014771e+00</stageThreshold>
  <weakClassifiers>
    <_>
      <internalNodes>
        0 -1 88936 -5.5116983130574226e-03</internalNodes>
      <leafValues>
        3.7301588058471680e-01 -2.8132206201553345e-01</leafValues></_>
    <_>
      <internalNodes>
        0 -1 114948 4.0109260007739067e-03</internalNodes>
      <leafValues>
        -8.2467921078205109e-02 8.2863527536392212e-01</leafValues></_>
    <_>
      <internalNodes>
        0 -1 9890 -4.3325237929821014e-02</internalNodes>
      <leafValues>
        1. -8.4095284342765808e-02</leafValues></_>
    <_>
      <internalNodes>
        0 -1 24674 3.4223333001136780e-02</internalNodes>
      <leafValues>
        -2.5646200776100159e-01 2.9260334372520447e-01</leafValues></_>
    <_>
      <internalNodes>
        0 -1 3734 -2.3664176114834845e-04</internalNodes>
      <leafValues>
        3.5784819722175598e-01 -1.9207167625427246e-01</leafValues></_>
    <_>
      <internalNodes>
        0 -1 95851 -6.8781942129135132e-02</internalNodes>
      <leafValues>
        9.2845726013183594e-01 -3.8525942713022232e-02</leafValues></_>
    <_>
      <internalNodes>
        0 -1 80521 1.3155823945999146e-01</internalNodes>
      <leafValues>
        -1.4235109090805054e-01 4.3079429864883423e-01</leafValues></_>
    <_>
      <internalNodes>
        0 -1 124608 4.0250821039080620e-03</internalNodes>
      <leafValues>
        -1.2713906168937683e-01 5.8491629362106323e-01</leafValues></_>
    <_>
      <internalNodes>
        0 -1 109579 -4.3329776963219047e-04</internalNodes>
      <leafValues>
        -2.6179131865501404e-01 2.7761352062225342e-01</leafValues></_>
    <_>
      <internalNodes>
        0 -1 6947 3.6579515784978867e-02</internalNodes>
      <leafValues>
        1.5804368257522583e-01 -4.2202234268188477e-01</leafValues></_>
    <_>
      <internalNodes>
        0 -1 26870 -5.4146647453308105e-03</internalNodes>
      <leafValues>
        -4.2287567257881165e-01 1.6564168035984039e-01</leafValues></_>
    <_>
      <internalNodes>
        0 -1 78979 2.1390612528193742e-04</internalNodes>
      <leafValues>
        -2.3285317420959473e-01 2.8483587503433228e-01</leafValues></_>
    <_>
      <internalNodes>
        0 -1 63259 -4.0634733159095049e-04</internalNodes>
      <leafValues>
        -4.1353693604469299e-01 1.6283360123634338e-01</leafValues></_>
    <_>
      <internalNodes>
        0 -1 121518 8.8381487876176834e-04</internalNodes>
      <leafValues>
        -1.6513237357139587e-01 4.4954395294189453e-01</leafValues></_>
    <_>
      <internalNodes>
        0 -1 93579 9.4074849039316177e-04</internalNodes>
      <leafValues>
        -1.7761184275150299e-01 3.8155817985534668e-01</leafValues></_>
    <_>
      <internalNodes>
        0 -1 46850 2.4797971127554774e-04</internalNodes>
      <leafValues>
        2.5000551342964172e-01 -2.5456374883651733e-01</leafValues></_>
    <_>
      <internalNodes>
        0 -1 47155 1.7900482052937150e-03</internalNodes>
      <leafValues>
        -1.2911783158779144e-01 7.3867547512054443e-01</leafValues></_>
    <_>
      <internalNodes>
        0 -1 66527 2.2455104044638574e-05</internalNodes>
      <leafValues>
        -1.5864406526088715e-01 3.6255127191543579e-01</leafValues></_>
    <_>
      <internalNodes>
        0 -1 67097 -1.6669694741722196e-04</internalNodes>
      <leafValues>
        -2.1489514410495758e-01 3.2486885786056519e-01</leafValues></_>
    <_>
      <internalNodes>
        0 -1 40129 6.8583176471292973e-03</internalNodes>
      <leafValues>
        1.0871095210313797e-01 -6.2818825244903564e-01</leafValues></_>
    <_>
      <internalNodes>
        0 -1 121694 -4.6770804328843951e-04</internalNodes>
      <leafValues>
        3.2343530654907227e-01 -2.0064237713813782e-01</leafValues></_>
    <_>
      <internalNodes>
        0 -1 83271 7.2419960051774979e-03</internalNodes>
      <leafValues>
        -8.7818995118141174e-02 7.8717660903930664e-01</leafValues></_>
    <_>
      <internalNodes>
        0 -1 68394 4.6257182839326560e-04</internalNodes>
      <leafValues>
        -1.7486155033111572e-01 3.6315765976905823e-01</leafValues></_>
    <_>
      <internalNodes>
        0 -1 54489 -7.9468137118965387e-04</internalNodes>
      <leafValues>
        -4.9329861998558044e-01 1.3492625951766968e-01</leafValues></_>
    <_>
      <internalNodes>
        0 -1 38640 -3.1043148040771484e-01</internalNodes>
      <leafValues>
        9.0472167730331421e-01 -8.0291196703910828e-02</leafValues></_>
    <_>
      <internalNodes>
        0 -1 9160 3.7939146161079407e-02</internalNodes>
      <leafValues>
        -1.1266658455133438e-01 4.9126815795898438e-01</leafValues></_>
    <_>
      <internalNodes>
        0 -1 10803 -2.5601351261138916e-01</internalNodes>
      <leafValues>
        5.4450213909149170e-01 -1.1644519120454788e-01</leafValues></_>
    <_>
      <internalNodes>
        0 -1 34797 -2.1061476320028305e-02</internalNodes>
      <leafValues>
        7.8547197580337524e-01 -8.2816407084465027e-02</leafValues></_>
    <_>
      <internalNodes>
        0 -1 5755 -2.6527382433414459e-03</internalNodes>
      <leafValues>
        8.7351781129837036e-01 -5.5132962763309479e-02</leafValues></_>
    <_>
      <internalNodes>
        0 -1 9860 -9.7273841674905270e-05</internalNodes>
      <leafValues>
        -2.4823039770126343e-01 2.7894493937492371e-01</leafValues></_>
    <_>
      <internalNodes>
        0 -1 65177 -1.7197836190462112e-02</internalNodes>
      <leafValues>
        3.3999100327491760e-01 -2.0496720075607300e-01</leafValues></_>
    <_>
      <internalNodes>
        0 -1 96523 -1.6911241691559553e-03</internalNodes>
      <leafValues>
        -4.8532477021217346e-01 1.6382196545600891e-01</leafValues></_>
    <_>
      <internalNodes>
        0 -1 14683 -3.7907242774963379e-02</internalNodes>
      <leafValues>
        -4.0916910767555237e-01 1.4812016487121582e-01</leafValues></_>
    <_>
      <internalNodes>
        0 -1 123430 -9.2407385818660259e-04</internalNodes>
      <leafValues>
        3.2387509942054749e-01 -2.1097080409526825e-01</leafValues></_>
    <_>
      <internalNodes>
        0 -1 124831 6.0706861317157745e-02</internalNodes>
      <leafValues>
        8.3724878728389740e-02 -8.7416762113571167e-01</leafValues></_></weakClassifiers></stage6>
</opencv_storage>
