<?xml version="1.0"?>
<opencv_storage>
<stage9>
  <maxWeakCount>7</maxWeakCount>
  <stageThreshold>-1.2118306159973145e+00</stageThreshold>
  <weakClassifiers>
    <_>
      <internalNodes>
        0 -1 13781 -6.5269374847412109e-01</internalNodes>
      <leafValues>
        3.4342259168624878e-01 -5.0326138734817505e-01</leafValues></_>
    <_>
      <internalNodes>
        0 -1 9545 4.0579144842922688e-03</internalNodes>
      <leafValues>
        -6.1829000711441040e-01 3.0194783210754395e-01</leafValues></_>
    <_>
      <internalNodes>
        0 -1 93418 -5.4586789337918162e-04</internalNodes>
      <leafValues>
        -5.5358600616455078e-01 2.9274946451187134e-01</leafValues></_>
    <_>
      <internalNodes>
        0 -1 1889 -4.5241537736728787e-04</internalNodes>
      <leafValues>
        -8.6755067110061646e-01 1.9457180798053741e-01</leafValues></_>
    <_>
      <internalNodes>
        0 -1 23561 2.2357903071679175e-04</internalNodes>
      <leafValues>
        2.2007659077644348e-01 -8.0877506732940674e-01</leafValues></_>
    <_>
      <internalNodes>
        0 -1 1016 1.4038756489753723e-02</internalNodes>
      <leafValues>
        1.4737439155578613e-01 -9.1360545158386230e-01</leafValues></_>
    <_>
      <internalNodes>
        0 -1 99286 -3.6268797703087330e-04</internalNodes>
      <leafValues>
        -5.8678990602493286e-01 2.2568488121032715e-01</leafValues></_></weakClassifiers></stage9>
</opencv_storage>
