<?xml version="1.0"?>
<opencv_storage>
<stage12>
  <maxWeakCount>6</maxWeakCount>
  <stageThreshold>-6.7699444293975830e-01</stageThreshold>
  <weakClassifiers>
    <_>
      <internalNodes>
        0 -1 4375 8.1249122740700841e-04</internalNodes>
      <leafValues>
        -7.3457944393157959e-01 1.4123438298702240e-01</leafValues></_>
    <_>
      <internalNodes>
        0 -1 19166 2.3304793285205960e-04</internalNodes>
      <leafValues>
        1.9350011646747589e-01 -7.1226567029953003e-01</leafValues></_>
    <_>
      <internalNodes>
        0 -1 104941 -1.6510079149156809e-03</internalNodes>
      <leafValues>
        -6.8648540973663330e-01 2.4131233990192413e-01</leafValues></_>
    <_>
      <internalNodes>
        0 -1 124843 1.0765224695205688e-02</internalNodes>
      <leafValues>
        -7.2889035940170288e-01 2.1052289009094238e-01</leafValues></_>
    <_>
      <internalNodes>
        0 -1 121735 1.7889277660287917e-04</internalNodes>
      <leafValues>
        1.9697554409503937e-01 -7.4864268302917480e-01</leafValues></_>
    <_>
      <internalNodes>
        0 -1 65420 -2.2399975568987429e-04</internalNodes>
      <leafValues>
        2.2449177503585815e-01 -6.7634671926498413e-01</leafValues></_></weakClassifiers></stage12>
</opencv_storage>
