<?xml version="1.0"?>
<opencv_storage>
<stage13>
  <maxWeakCount>8</maxWeakCount>
  <stageThreshold>-9.6754682064056396e-01</stageThreshold>
  <weakClassifiers>
    <_>
      <internalNodes>
        0 -1 39733 -2.4919630959630013e-04</internalNodes>
      <leafValues>
        1.4020770788192749e-01 -7.7931034564971924e-01</leafValues></_>
    <_>
      <internalNodes>
        0 -1 93396 -5.7996372925117612e-04</internalNodes>
      <leafValues>
        -6.6814172267913818e-01 2.0466221868991852e-01</leafValues></_>
    <_>
      <internalNodes>
        0 -1 78390 1.6351300291717052e-03</internalNodes>
      <leafValues>
        2.1008911728858948e-01 -7.9036098718643188e-01</leafValues></_>
    <_>
      <internalNodes>
        0 -1 125016 -6.4745821873657405e-05</internalNodes>
      <leafValues>
        2.8433459997177124e-01 -5.8071601390838623e-01</leafValues></_>
    <_>
      <internalNodes>
        0 -1 7940 2.0240645972080529e-04</internalNodes>
      <leafValues>
        -6.8103021383285522e-01 2.4242766201496124e-01</leafValues></_>
    <_>
      <internalNodes>
        0 -1 29352 3.3734589815139771e-02</internalNodes>
      <leafValues>
        -7.5262117385864258e-01 1.9767664372920990e-01</leafValues></_>
    <_>
      <internalNodes>
        0 -1 99447 1.7442821990698576e-04</internalNodes>
      <leafValues>
        3.0297431349754333e-01 -5.2962613105773926e-01</leafValues></_>
    <_>
      <internalNodes>
        0 -1 123919 9.9192329798825085e-05</internalNodes>
      <leafValues>
        2.4335470795631409e-01 -6.6477292776107788e-01</leafValues></_></weakClassifiers></stage13>
</opencv_storage>
