<?xml version="1.0"?>
<opencv_storage>
<stage10>
  <maxWeakCount>7</maxWeakCount>
  <stageThreshold>-1.3779652118682861e+00</stageThreshold>
  <weakClassifiers>
    <_>
      <internalNodes>
        0 -1 73928 1.3815055135637522e-03</internalNodes>
      <leafValues>
        1.1282952874898911e-01 -8.4757506847381592e-01</leafValues></_>
    <_>
      <internalNodes>
        0 -1 5090 8.5400766693055630e-04</internalNodes>
      <leafValues>
        -6.9915962219238281e-01 2.0424634218215942e-01</leafValues></_>
    <_>
      <internalNodes>
        0 -1 104869 -4.6599947381764650e-04</internalNodes>
      <leafValues>
        -8.1204348802566528e-01 2.0789650082588196e-01</leafValues></_>
    <_>
      <internalNodes>
        0 -1 104869 4.9637618940323591e-04</internalNodes>
      <leafValues>
        2.6270583271980286e-01 -6.6749066114425659e-01</leafValues></_>
    <_>
      <internalNodes>
        0 -1 25 9.9610490724444389e-04</internalNodes>
      <leafValues>
        -7.5828516483306885e-01 1.9370703399181366e-01</leafValues></_>
    <_>
      <internalNodes>
        0 -1 122123 2.1254815510474145e-04</internalNodes>
      <leafValues>
        -5.8089727163314819e-01 2.5694099068641663e-01</leafValues></_>
    <_>
      <internalNodes>
        0 -1 125180 -1.0845235083252192e-03</internalNodes>
      <leafValues>
        -8.9627188444137573e-01 1.6930319368839264e-01</leafValues></_></weakClassifiers></stage10>
</opencv_storage>
