<?xml version="1.0"?>
<opencv_storage>
<stage7>
  <maxWeakCount>7</maxWeakCount>
  <stageThreshold>-1.1689789295196533e+00</stageThreshold>
  <weakClassifiers>
    <_>
      <internalNodes>
        0 -1 19231 -1.5955609083175659e-01</internalNodes>
      <leafValues>
        4.6799430251121521e-01 -4.6464207768440247e-01</leafValues></_>
    <_>
      <internalNodes>
        0 -1 1906 1.3046810636296868e-03</internalNodes>
      <leafValues>
        -7.2224372625350952e-01 2.6406234502792358e-01</leafValues></_>
    <_>
      <internalNodes>
        0 -1 2782 2.9376088641583920e-03</internalNodes>
      <leafValues>
        2.1842411160469055e-01 -8.2442945241928101e-01</leafValues></_>
    <_>
      <internalNodes>
        0 -1 99287 -4.6290981117635965e-04</internalNodes>
      <leafValues>
        -7.6260495185852051e-01 2.0144671201705933e-01</leafValues></_>
    <_>
      <internalNodes>
        0 -1 99287 4.5572203816846013e-04</internalNodes>
      <leafValues>
        3.0937683582305908e-01 -7.5927305221557617e-01</leafValues></_>
    <_>
      <internalNodes>
        0 -1 9856 -1.6272405628114939e-04</internalNodes>
      <leafValues>
        -8.2642793655395508e-01 1.5145926177501678e-01</leafValues></_>
    <_>
      <internalNodes>
        0 -1 73466 1.2266886234283447e-01</internalNodes>
      <leafValues>
        -6.7023903131484985e-01 1.9854716956615448e-01</leafValues></_></weakClassifiers></stage7>
</opencv_storage>
