<?xml version="1.0"?>
<opencv_storage>
<stage11>
  <maxWeakCount>7</maxWeakCount>
  <stageThreshold>-1.1595710515975952e+00</stageThreshold>
  <weakClassifiers>
    <_>
      <internalNodes>
        0 -1 4009 -2.9191505908966064e-01</internalNodes>
      <leafValues>
        2.8348574042320251e-01 -5.0755941867828369e-01</leafValues></_>
    <_>
      <internalNodes>
        0 -1 6395 3.1675612553954124e-03</internalNodes>
      <leafValues>
        -7.0362418889999390e-01 2.4141433835029602e-01</leafValues></_>
    <_>
      <internalNodes>
        0 -1 90577 9.6945598488673568e-04</internalNodes>
      <leafValues>
        2.2395108640193939e-01 -8.2863116264343262e-01</leafValues></_>
    <_>
      <internalNodes>
        0 -1 124068 4.8241275362670422e-03</internalNodes>
      <leafValues>
        -6.6673755645751953e-01 1.9575743377208710e-01</leafValues></_>
    <_>
      <internalNodes>
        0 -1 457 -6.1558574438095093e-02</internalNodes>
      <leafValues>
        1.7907643318176270e-01 -9.0548515319824219e-01</leafValues></_>
    <_>
      <internalNodes>
        0 -1 105342 1.7036739154718816e-04</internalNodes>
      <leafValues>
        3.2478937506675720e-01 -4.8062095046043396e-01</leafValues></_>
    <_>
      <internalNodes>
        0 -1 110327 -5.0194712821394205e-04</internalNodes>
      <leafValues>
        -7.6926773786544800e-01 2.1259973943233490e-01</leafValues></_></weakClassifiers></stage11>
</opencv_storage>
