<?xml version="1.0"?>
<opencv_storage>
<stage5>
  <maxWeakCount>7</maxWeakCount>
  <stageThreshold>-1.8992407321929932e+00</stageThreshold>
  <weakClassifiers>
    <_>
      <internalNodes>
        0 -1 2317 -4.3983685970306396e-01</internalNodes>
      <leafValues>
        4.1566553711891174e-01 -7.8404909372329712e-01</leafValues></_>
    <_>
      <internalNodes>
        0 -1 5750 2.1312941680662334e-04</internalNodes>
      <leafValues>
        -7.4468576908111572e-01 2.1547563374042511e-01</leafValues></_>
    <_>
      <internalNodes>
        0 -1 83722 7.8923068940639496e-04</internalNodes>
      <leafValues>
        3.0955934524536133e-01 -7.2574353218078613e-01</leafValues></_>
    <_>
      <internalNodes>
        0 -1 123639 -4.3457979336380959e-03</internalNodes>
      <leafValues>
        -9.3110996484756470e-01 1.1178762465715408e-01</leafValues></_>
    <_>
      <internalNodes>
        0 -1 123984 -5.8166137023363262e-05</internalNodes>
      <leafValues>
        4.1781121492385864e-01 -4.2463314533233643e-01</leafValues></_>
    <_>
      <internalNodes>
        0 -1 6978 9.9455995950847864e-04</internalNodes>
      <leafValues>
        -6.5414708852767944e-01 2.5089240074157715e-01</leafValues></_>
    <_>
      <internalNodes>
        0 -1 23175 -8.1154532730579376e-02</internalNodes>
      <leafValues>
        2.8692743182182312e-01 -5.9614652395248413e-01</leafValues></_></weakClassifiers></stage5>
</opencv_storage>
