<?xml version="1.0"?>
<opencv_storage>
<stage2>
  <maxWeakCount>100</maxWeakCount>
  <stageThreshold>-1.0294884443283081e+00</stageThreshold>
  <weakClassifiers>
    <_>
      <internalNodes>
        0 -1 100312 3.7024863064289093e-02</internalNodes>
      <leafValues>
        -2.4324324727058411e-01 3.1120333075523376e-01</leafValues></_>
    <_>
      <internalNodes>
        0 -1 8865 -2.2274051606655121e-01</internalNodes>
      <leafValues>
        6.5159350633621216e-01 -5.3775239735841751e-02</leafValues></_>
    <_>
      <internalNodes>
        0 -1 660 -3.8516932725906372e-01</internalNodes>
      <leafValues>
        3.5846090316772461e-01 -1.2565943598747253e-01</leafValues></_>
    <_>
      <internalNodes>
        0 -1 28952 -2.5367908179759979e-02</internalNodes>
      <leafValues>
        2.9792758822441101e-01 -8.4238857030868530e-02</leafValues></_>
    <_>
      <internalNodes>
        0 -1 108500 -8.8678476458881050e-05</internalNodes>
      <leafValues>
        -2.3744554817676544e-01 1.0610841959714890e-01</leafValues></_>
    <_>
      <internalNodes>
        0 -1 119567 4.0537441964261234e-04</internalNodes>
      <leafValues>
        1.2783861160278320e-01 -2.1041992306709290e-01</leafValues></_>
    <_>
      <internalNodes>
        0 -1 123805 5.7206803467124701e-04</internalNodes>
      <leafValues>
        1.1684842407703400e-01 -2.5716978311538696e-01</leafValues></_>
    <_>
      <internalNodes>
        0 -1 100288 -1.2087477371096611e-02</internalNodes>
      <leafValues>
        2.4422268569469452e-01 -1.5720088779926300e-01</leafValues></_>
    <_>
      <internalNodes>
        0 -1 70978 -2.8973509324714541e-04</internalNodes>
      <leafValues>
        -2.6725092530250549e-01 6.5456576645374298e-02</leafValues></_>
    <_>
      <internalNodes>
        0 -1 71250 2.8976902831345797e-04</internalNodes>
      <leafValues>
        1.5449002385139465e-01 -2.5060424208641052e-01</leafValues></_>
    <_>
      <internalNodes>
        0 -1 27945 1.4101880788803101e-01</internalNodes>
      <leafValues>
        -1.1705113947391510e-01 2.9477950930595398e-01</leafValues></_>
    <_>
      <internalNodes>
        0 -1 64164 4.5810127630829811e-05</internalNodes>
      <leafValues>
        -1.0684257745742798e-01 2.0108962059020996e-01</leafValues></_>
    <_>
      <internalNodes>
        0 -1 56290 -6.7149698734283447e-03</internalNodes>
      <leafValues>
        -4.2813003063201904e-01 4.4659629464149475e-02</leafValues></_>
    <_>
      <internalNodes>
        0 -1 99 -2.9598390683531761e-03</internalNodes>
      <leafValues>
        3.1169477105140686e-01 -6.2729001045227051e-02</leafValues></_>
    <_>
      <internalNodes>
        0 -1 72397 1.0215334594249725e-01</internalNodes>
      <leafValues>
        3.1066963449120522e-02 -6.8113547563552856e-01</leafValues></_>
    <_>
      <internalNodes>
        0 -1 64149 1.2950619566254318e-04</internalNodes>
      <leafValues>
        1.0698752105236053e-01 -1.9558227062225342e-01</leafValues></_>
    <_>
      <internalNodes>
        0 -1 8853 8.4789665415883064e-03</internalNodes>
      <leafValues>
        -9.8437473177909851e-02 2.0809583365917206e-01</leafValues></_>
    <_>
      <internalNodes>
        0 -1 97841 2.1689507411792874e-04</internalNodes>
      <leafValues>
        1.0308323055505753e-01 -1.7992727458477020e-01</leafValues></_>
    <_>
      <internalNodes>
        0 -1 97841 -9.1811438323929906e-04</internalNodes>
      <leafValues>
        -2.5043225288391113e-01 9.0551063418388367e-02</leafValues></_>
    <_>
      <internalNodes>
        0 -1 48552 5.0316929817199707e-02</internalNodes>
      <leafValues>
        -9.1180488467216492e-02 2.1128988265991211e-01</leafValues></_>
    <_>
      <internalNodes>
        0 -1 61645 -1.2916050851345062e-02</internalNodes>
      <leafValues>
        2.3128072917461395e-01 -1.0260326415300369e-01</leafValues></_>
    <_>
      <internalNodes>
        0 -1 53075 -4.4976398348808289e-01</internalNodes>
      <leafValues>
        4.0557014942169189e-01 -4.2534384876489639e-02</leafValues></_>
    <_>
      <internalNodes>
        0 -1 52632 -9.6020922064781189e-02</internalNodes>
      <leafValues>
        -3.8476300239562988e-01 4.8287447541952133e-02</leafValues></_>
    <_>
      <internalNodes>
        0 -1 112435 1.1094380915164948e-01</internalNodes>
      <leafValues>
        -1.0960673540830612e-01 2.2414258122444153e-01</leafValues></_>
    <_>
      <internalNodes>
        0 -1 35029 2.9336187988519669e-02</internalNodes>
      <leafValues>
        -1.1421678215265274e-01 1.6871257126331329e-01</leafValues></_>
    <_>
      <internalNodes>
        0 -1 110689 1.2098559178411961e-02</internalNodes>
      <leafValues>
        -8.5495956242084503e-02 2.3872239887714386e-01</leafValues></_>
    <_>
      <internalNodes>
        0 -1 79960 8.7525477283634245e-05</internalNodes>
      <leafValues>
        1.1461693048477173e-01 -1.6600789129734039e-01</leafValues></_>
    <_>
      <internalNodes>
        0 -1 75106 6.7223939113318920e-03</internalNodes>
      <leafValues>
        -7.9913303256034851e-02 3.0154606699943542e-01</leafValues></_>
    <_>
      <internalNodes>
        0 -1 116998 1.9763532327488065e-04</internalNodes>
      <leafValues>
        9.4726964831352234e-02 -2.0151849091053009e-01</leafValues></_>
    <_>
      <internalNodes>
        0 -1 112938 1.0141652077436447e-02</internalNodes>
      <leafValues>
        -5.8706603944301605e-02 3.3165469765663147e-01</leafValues></_>
    <_>
      <internalNodes>
        0 -1 1256 -7.6413536444306374e-03</internalNodes>
      <leafValues>
        1.7751482129096985e-01 -9.8363980650901794e-02</leafValues></_>
    <_>
      <internalNodes>
        0 -1 23747 -2.7285218238830566e-01</internalNodes>
      <leafValues>
        -6.5245878696441650e-01 2.6137014850974083e-02</leafValues></_>
    <_>
      <internalNodes>
        0 -1 63260 -8.6510990513488650e-05</internalNodes>
      <leafValues>
        -1.9736029207706451e-01 9.1416150331497192e-02</leafValues></_>
    <_>
      <internalNodes>
        0 -1 49757 1.3637766242027283e-02</internalNodes>
      <leafValues>
        -8.6608096957206726e-02 2.4413436651229858e-01</leafValues></_>
    <_>
      <internalNodes>
        0 -1 27816 -2.1475686226040125e-03</internalNodes>
      <leafValues>
        2.1087554097175598e-01 -9.1964475810527802e-02</leafValues></_>
    <_>
      <internalNodes>
        0 -1 20851 -3.9095070213079453e-02</internalNodes>
      <leafValues>
        -6.0540145635604858e-01 3.0755823478102684e-02</leafValues></_>
    <_>
      <internalNodes>
        0 -1 97286 5.5717327632009983e-04</internalNodes>
      <leafValues>
        1.0354213416576385e-01 -1.5582604706287384e-01</leafValues></_>
    <_>
      <internalNodes>
        0 -1 44173 -7.0460774004459381e-03</internalNodes>
      <leafValues>
        2.3215632140636444e-01 -8.0437310039997101e-02</leafValues></_>
    <_>
      <internalNodes>
        0 -1 33512 -5.8424756862223148e-03</internalNodes>
      <leafValues>
        1.0834097117185593e-01 -1.5579594671726227e-01</leafValues></_>
    <_>
      <internalNodes>
        0 -1 122097 -7.7525272965431213e-02</internalNodes>
      <leafValues>
        3.4737280011177063e-01 -5.9554714709520340e-02</leafValues></_>
    <_>
      <internalNodes>
        0 -1 101647 -7.8109139576554298e-03</internalNodes>
      <leafValues>
        1.5547548234462738e-01 -1.1856824159622192e-01</leafValues></_>
    <_>
      <internalNodes>
        0 -1 18261 5.5422992445528507e-03</internalNodes>
      <leafValues>
        -8.7060511112213135e-02 1.9202888011932373e-01</leafValues></_>
    <_>
      <internalNodes>
        0 -1 91734 3.9276860654354095e-02</internalNodes>
      <leafValues>
        -1.0978017002344131e-01 1.5493355691432953e-01</leafValues></_>
    <_>
      <internalNodes>
        0 -1 78598 2.0576662791427225e-04</internalNodes>
      <leafValues>
        1.0763372480869293e-01 -1.8563932180404663e-01</leafValues></_>
    <_>
      <internalNodes>
        0 -1 78241 -8.3784194430336356e-05</internalNodes>
      <leafValues>
        -1.8175069987773895e-01 1.0774172842502594e-01</leafValues></_>
    <_>
      <internalNodes>
        0 -1 61011 -3.1870849430561066e-02</internalNodes>
      <leafValues>
        1.5510088205337524e-01 -1.0855819284915924e-01</leafValues></_>
    <_>
      <internalNodes>
        0 -1 30842 -1.1729251127690077e-03</internalNodes>
      <leafValues>
        1.3809552788734436e-01 -1.2369255721569061e-01</leafValues></_>
    <_>
      <internalNodes>
        0 -1 116218 6.5311457728967071e-04</internalNodes>
      <leafValues>
        9.0878538787364960e-02 -1.9089458882808685e-01</leafValues></_>
    <_>
      <internalNodes>
        0 -1 93709 -4.0361853316426277e-03</internalNodes>
      <leafValues>
        3.4415355324745178e-01 -4.5094512403011322e-02</leafValues></_>
    <_>
      <internalNodes>
        0 -1 6975 3.6083208397030830e-04</internalNodes>
      <leafValues>
        -1.0303512960672379e-01 1.5288244187831879e-01</leafValues></_>
    <_>
      <internalNodes>
        0 -1 55071 2.0809826673939824e-04</internalNodes>
      <leafValues>
        9.8916612565517426e-02 -1.7116563022136688e-01</leafValues></_>
    <_>
      <internalNodes>
        0 -1 48963 4.5295622199773788e-02</internalNodes>
      <leafValues>
        2.0682606846094131e-02 -8.2966673374176025e-01</leafValues></_>
    <_>
      <internalNodes>
        0 -1 46503 -8.4384055808186531e-03</internalNodes>
      <leafValues>
        1.4267227053642273e-01 -1.1236807703971863e-01</leafValues></_>
    <_>
      <internalNodes>
        0 -1 55318 -5.7944562286138535e-04</internalNodes>
      <leafValues>
        -2.0312219858169556e-01 7.5574010610580444e-02</leafValues></_>
    <_>
      <internalNodes>
        0 -1 93377 1.6909789701458067e-04</internalNodes>
      <leafValues>
        9.7745798528194427e-02 -1.6769833862781525e-01</leafValues></_>
    <_>
      <internalNodes>
        0 -1 14803 2.9450827278196812e-03</internalNodes>
      <leafValues>
        -8.3919547498226166e-02 1.8865872919559479e-01</leafValues></_>
    <_>
      <internalNodes>
        0 -1 115590 -1.0227035090792924e-04</internalNodes>
      <leafValues>
        -1.7486847937107086e-01 9.1943986713886261e-02</leafValues></_>
    <_>
      <internalNodes>
        0 -1 118748 -2.5289249606430531e-04</internalNodes>
      <leafValues>
        1.2226477265357971e-01 -1.4539027214050293e-01</leafValues></_>
    <_>
      <internalNodes>
        0 -1 60313 -8.3243503468111157e-05</internalNodes>
      <leafValues>
        1.0025326162576675e-01 -1.7559747397899628e-01</leafValues></_>
    <_>
      <internalNodes>
        0 -1 53713 -7.6048374467063695e-05</internalNodes>
      <leafValues>
        -1.4446870982646942e-01 1.1469104886054993e-01</leafValues></_>
    <_>
      <internalNodes>
        0 -1 118203 -8.2266249228268862e-04</internalNodes>
      <leafValues>
        1.6600371897220612e-01 -9.4385460019111633e-02</leafValues></_>
    <_>
      <internalNodes>
        0 -1 124784 -1.9768001511693001e-03</internalNodes>
      <leafValues>
        2.6066049933433533e-01 -5.4611526429653168e-02</leafValues></_>
    <_>
      <internalNodes>
        0 -1 123502 4.6851899242028594e-05</internalNodes>
      <leafValues>
        -1.1119096726179123e-01 1.4513683319091797e-01</leafValues></_>
    <_>
      <internalNodes>
        0 -1 49673 -4.5271646231412888e-03</internalNodes>
      <leafValues>
        1.7794802784919739e-01 -8.2822963595390320e-02</leafValues></_>
    <_>
      <internalNodes>
        0 -1 25626 -1.2611964344978333e-01</internalNodes>
      <leafValues>
        -5.6647545099258423e-01 2.6831883937120438e-02</leafValues></_>
    <_>
      <internalNodes>
        0 -1 111668 -2.5646744295954704e-02</internalNodes>
      <leafValues>
        6.0118281841278076e-01 -2.6997245848178864e-02</leafValues></_>
    <_>
      <internalNodes>
        0 -1 116756 -2.4063122691586614e-04</internalNodes>
      <leafValues>
        -2.0719045400619507e-01 8.7625890970230103e-02</leafValues></_>
    <_>
      <internalNodes>
        0 -1 106112 8.1709655933082104e-04</internalNodes>
      <leafValues>
        -9.2668600380420685e-02 1.9090409576892853e-01</leafValues></_>
    <_>
      <internalNodes>
        0 -1 124885 -1.2518251314759254e-03</internalNodes>
      <leafValues>
        -2.4317285418510437e-01 6.4973555505275726e-02</leafValues></_>
    <_>
      <internalNodes>
        0 -1 123959 6.6547691822052002e-03</internalNodes>
      <leafValues>
        -6.0050081461668015e-02 2.9367604851722717e-01</leafValues></_>
    <_>
      <internalNodes>
        0 -1 87070 -1.2360886670649052e-02</internalNodes>
      <leafValues>
        -6.3530546426773071e-01 2.5561200454831123e-02</leafValues></_>
    <_>
      <internalNodes>
        0 -1 311 -7.5311958789825439e-02</internalNodes>
      <leafValues>
        -6.8425619602203369e-01 1.8859133124351501e-02</leafValues></_>
    <_>
      <internalNodes>
        0 -1 55465 -8.8945118477568030e-05</internalNodes>
      <leafValues>
        -1.7805610597133636e-01 8.0452233552932739e-02</leafValues></_>
    <_>
      <internalNodes>
        0 -1 37597 5.8660737704485655e-04</internalNodes>
      <leafValues>
        6.1899766325950623e-02 -2.9218170046806335e-01</leafValues></_>
    <_>
      <internalNodes>
        0 -1 67748 -6.2653776258230209e-03</internalNodes>
      <leafValues>
        4.2231476306915283e-01 -4.1634730994701385e-02</leafValues></_>
    <_>
      <internalNodes>
        0 -1 60237 2.0934278145432472e-02</internalNodes>
      <leafValues>
        2.3838533088564873e-02 -6.4910614490509033e-01</leafValues></_>
    <_>
      <internalNodes>
        0 -1 48443 5.5232647806406021e-02</internalNodes>
      <leafValues>
        2.2868549451231956e-02 -5.7458913326263428e-01</leafValues></_>
    <_>
      <internalNodes>
        0 -1 65806 6.7744622356258333e-05</internalNodes>
      <leafValues>
        -1.1618895828723907e-01 1.3251680135726929e-01</leafValues></_>
    <_>
      <internalNodes>
        0 -1 33 -5.6978093925863504e-04</internalNodes>
      <leafValues>
        1.0914102196693420e-01 -1.4414018392562866e-01</leafValues></_>
    <_>
      <internalNodes>
        0 -1 79634 4.2567722266539931e-04</internalNodes>
      <leafValues>
        8.9963681995868683e-02 -1.7680594325065613e-01</leafValues></_>
    <_>
      <internalNodes>
        0 -1 7604 -1.5303099527955055e-02</internalNodes>
      <leafValues>
        1.6206133365631104e-01 -1.1333578824996948e-01</leafValues></_>
    <_>
      <internalNodes>
        0 -1 55532 -9.0383598580956459e-04</internalNodes>
      <leafValues>
        1.7257776856422424e-01 -9.3921847641468048e-02</leafValues></_>
    <_>
      <internalNodes>
        0 -1 45950 1.4489637687802315e-02</internalNodes>
      <leafValues>
        -9.3053780496120453e-02 1.9241505861282349e-01</leafValues></_>
    <_>
      <internalNodes>
        0 -1 98220 6.1584985814988613e-04</internalNodes>
      <leafValues>
        8.9163042604923248e-02 -1.7961840331554413e-01</leafValues></_>
    <_>
      <internalNodes>
        0 -1 46498 -3.1001402530819178e-03</internalNodes>
      <leafValues>
        1.6139537096023560e-01 -1.0111142694950104e-01</leafValues></_>
    <_>
      <internalNodes>
        0 -1 113139 2.5000105961225927e-04</internalNodes>
      <leafValues>
        1.0085615515708923e-01 -1.5540759265422821e-01</leafValues></_>
    <_>
      <internalNodes>
        0 -1 112820 -3.1063205096870661e-04</internalNodes>
      <leafValues>
        -1.7295861244201660e-01 1.1940818279981613e-01</leafValues></_>
    <_>
      <internalNodes>
        0 -1 69645 -1.9485762459225953e-04</internalNodes>
      <leafValues>
        1.0975813120603561e-01 -1.6128240525722504e-01</leafValues></_>
    <_>
      <internalNodes>
        0 -1 73470 -8.9324012398719788e-02</internalNodes>
      <leafValues>
        1.8652287125587463e-01 -9.2962078750133514e-02</leafValues></_>
    <_>
      <internalNodes>
        0 -1 43750 1.6757864505052567e-02</internalNodes>
      <leafValues>
        -1.0169111937284470e-01 2.0529997348785400e-01</leafValues></_>
    <_>
      <internalNodes>
        0 -1 37596 -1.6663124551996589e-04</internalNodes>
      <leafValues>
        -2.0270371437072754e-01 8.3905376493930817e-02</leafValues></_>
    <_>
      <internalNodes>
        0 -1 37614 4.9890845548361540e-04</internalNodes>
      <leafValues>
        9.5241941511631012e-02 -1.7746336758136749e-01</leafValues></_>
    <_>
      <internalNodes>
        0 -1 63043 1.8821662291884422e-02</internalNodes>
      <leafValues>
        -7.5625278055667877e-02 2.1521060168743134e-01</leafValues></_>
    <_>
      <internalNodes>
        0 -1 76900 2.9874863103032112e-03</internalNodes>
      <leafValues>
        -1.2173260003328323e-01 1.3277718424797058e-01</leafValues></_>
    <_>
      <internalNodes>
        0 -1 7624 -1.5870720148086548e-02</internalNodes>
      <leafValues>
        2.5078547000885010e-01 -7.5016796588897705e-02</leafValues></_>
    <_>
      <internalNodes>
        0 -1 43120 7.5494982302188873e-02</internalNodes>
      <leafValues>
        3.0644329264760017e-02 -5.5336439609527588e-01</leafValues></_>
    <_>
      <internalNodes>
        0 -1 108146 -7.9716086387634277e-02</internalNodes>
      <leafValues>
        6.0376107692718506e-01 -3.2151564955711365e-02</leafValues></_>
    <_>
      <internalNodes>
        0 -1 92096 -3.0520996078848839e-03</internalNodes>
      <leafValues>
        1.7705906927585602e-01 -8.3371199667453766e-02</leafValues></_>
    <_>
      <internalNodes>
        0 -1 110387 -5.1593997341115028e-05</internalNodes>
      <leafValues>
        -1.4436058700084686e-01 1.0667597502470016e-01</leafValues></_>
    <_>
      <internalNodes>
        0 -1 124947 6.8524070084095001e-02</internalNodes>
      <leafValues>
        2.9297735542058945e-02 -5.8967155218124390e-01</leafValues></_></weakClassifiers></stage2>
</opencv_storage>
