<?xml version="1.0"?>
<opencv_storage>
<stage6>
  <maxWeakCount>12</maxWeakCount>
  <stageThreshold>-1.2697029113769531e+00</stageThreshold>
  <weakClassifiers>
    <_>
      <internalNodes>
        0 -1 1931 1.1942584533244371e-03</internalNodes>
      <leafValues>
        -2.8594404458999634e-01 8.5228604078292847e-01</leafValues></_>
    <_>
      <internalNodes>
        0 -1 78845 -3.3493349328637123e-03</internalNodes>
      <leafValues>
        -4.8561728000640869e-01 4.0898492932319641e-01</leafValues></_>
    <_>
      <internalNodes>
        0 -1 7774 -4.0976619347929955e-03</internalNodes>
      <leafValues>
        7.4670892953872681e-01 -3.1333446502685547e-01</leafValues></_>
    <_>
      <internalNodes>
        0 -1 18353 -5.2226055413484573e-03</internalNodes>
      <leafValues>
        8.2142692804336548e-01 -2.7689468860626221e-01</leafValues></_>
    <_>
      <internalNodes>
        0 -1 67153 1.0199309326708317e-03</internalNodes>
      <leafValues>
        -2.4997994303703308e-01 7.3750215768814087e-01</leafValues></_>
    <_>
      <internalNodes>
        0 -1 54082 -1.5828226460143924e-03</internalNodes>
      <leafValues>
        -3.4764522314071655e-01 5.1502937078475952e-01</leafValues></_>
    <_>
      <internalNodes>
        0 -1 80976 1.6800086013972759e-03</internalNodes>
      <leafValues>
        -2.5534135103225708e-01 8.2244241237640381e-01</leafValues></_>
    <_>
      <internalNodes>
        0 -1 34937 -2.4503075983375311e-03</internalNodes>
      <leafValues>
        7.9019552469253540e-01 -2.1896858513355255e-01</leafValues></_>
    <_>
      <internalNodes>
        0 -1 67883 -2.9703075997531414e-03</internalNodes>
      <leafValues>
        1. -1.8173031508922577e-01</leafValues></_>
    <_>
      <internalNodes>
        0 -1 106581 -1.9675346557050943e-03</internalNodes>
      <leafValues>
        1. -1.6343359649181366e-01</leafValues></_>
    <_>
      <internalNodes>
        0 -1 36888 -2.1808054298162460e-03</internalNodes>
      <leafValues>
        1. -1.2641678750514984e-01</leafValues></_>
    <_>
      <internalNodes>
        0 -1 103370 -1.8416788952890784e-04</internalNodes>
      <leafValues>
        -4.5134457945823669e-01 3.9275273680686951e-01</leafValues></_></weakClassifiers></stage6>
</opencv_storage>
